0.580063556222730 0.774179288363359 -1.753214377065310 0.426585297729801 1.521518921677343 0.764476951334458 -0.364638582196211 -2.212022881463497 0.644223673471252 -1.809845320330699 0.290421330333900 0.476569435646894 -0.441710082613794 0.266055107833884 0.594141642861796 -0.523975663621411 -1.288896122930002 1.253307208126706 -0.334935894348396 2.061350167882490 -0.316686303562376 -1.360863104365152 2.381773468004710 -0.441682760649705 1.025362515229852 -0.479298059204002 0.056902753340618 0.631718232416168 0.196509906098956 -1.649270063788118 -2.145496900640437 0.294831302671139 -1.886799670455205 0.571237371591774 -2.096390309017777 0.984575666923796 0.290337526116206 -1.445937964337670 -0.359338618857457 0.351190012180116 2.594620178756841 -0.186000552512208 -0.290367647377478 -0.530799728493419 -0.482714973283365 -1.712163519499684 -1.067364233090271 -0.717620943899975 -0.105706831271590 -1.544295757822566 0.728988558912741 -0.881785267665944 -0.931070291003004 -0.216751660678091 1.040747580135813 -1.122043870212342 0.085512347947201 1.288308536876217 0.503923050180465 0.695559362192174 1.191889858460231 -0.586515499333146 0.038327050332167 1.242786340040058 1.548874811264751 0.793929762223270 -0.268432483126955 1.815510819162976 -0.025407725668221 -0.551835313505814 -0.949288763204154 -0.613595751488823 -0.238134892336853 1.668374300064579 1.094956251719472 2.121597292750759 -0.079124776527412 -0.402726463172622 -0.761883520772374 0.534727710470064 0.546159180847822 0.351390721707909 0.321669073368782 0.280259649969957 -0.706248572100578 -0.144274122744366 -1.036451706727166 0.285590482593849 -0.174231209655586 -0.227042163624483 0.663831790118847 -0.076899748636244 -0.869950874063773 -1.036260794190331 0.075024874603791 0.747226496742897 -1.318881798242550 0.115955373557172 0.800168881718682 -0.116561289475963 -0.299268921773734 0.679591325579974 0.185174913052181 -1.067843278504992 1.134816027603299 0.642507676883558 0.456517268186891 -0.209627265926881 -0.933563820212763 0.762383486502247 1.106790383125090 -1.044182568884260 2.665164399445370 -0.795695293349770 -1.699181026631434 0.125701927695382 0.076673119184872 0.018925343765204 -0.449064705145785 0.369792739293956 -0.601594898297673 -0.554740652105058 0.755653179537405 0.180408420564549 1.121345287001781 -0.118402570307794 0.105569382143364 0.084150539902773 0.026980242520535 -0.030741223693136 -1.028591432104963 1.644356941636414 -0.091406665634144 -0.015752756073533 1.810567862200336 -1.501554830480906 0.715073010994106 0.081108723558385 -0.518998834582263 0.683444588780998 -1.060867591110842 0.138782654830944 -0.368505745788468 -0.359042487971062 -0.111194496145992 1.002436945254511 -1.149837236674498 -1.187933690938807 -1.278545096742354 0.393930243976392 0.046456325814076 1.136963969609404 -0.474974294634301 -0.263952404254842 0.296374604258673 -0.095293633678835 0.056475566706879 0.908704971415701 -0.641344658506616 -1.804853747314635 0.349906769883828 1.636078377704023 1.302049560758683 2.138841269923839 0.903743224573027 -0.407689235664138 0.292699787648641 0.661992562098908 1.932855286897088 -0.980270425906943 0.870458644731208 1.840282457752552 0.129780609417878 0.639369169289597 0.653994214961880 -0.736607166873871 1.460479948954998 0.214245640020008 -0.470701060577203 -0.257004753435047 0.000294863675686 0.215580992107669 -0.273092226051982 -0.416279882927710 -1.854930521855936 -0.791243731956069 -0.771966833472771 1.665485704027338 1.079413136622068 0.855577842191236 1.741442805917378 0.124673436661764 -0.301385920660503 -0.211466626308515 -0.597035607714374 0.827340298243530 0.018263558187091 0.917242168996253 0.581742622375650 -1.819547933493463 -1.934282749899433 -1.453056227300885 -0.530335331719699 -0.023328384135958 0.603306896039199 0.788316673249897 0.231938859718356 -0.491378836114785 -0.999036155465918 0.705980446605924 -0.311902258046708 -0.375773851748263 -2.436825056859032 1.121014519029676 -1.512959528077505 0.924117900005347 2.435757350720059 1.506679367449800 3.137173600756272 -0.058591064092519 0.327518293904276 -0.498004996875560 0.572454150558727 0.437042147947029 -1.334739631597150 -0.130215168532910 0.104112594129863 1.450511442842378 0.394602967318744 -0.836266956203878 0.316129777186036 0.162616993971106 1.625964702232210 0.161637114436135 -0.014456112024219 0.902554567412616 -0.339729066725137 -0.231327711026560 -0.164571857042251 0.904672926321002 1.359122257254381 0.563817995233254 0.699277820603456 0.878360642514875 1.400360146556359 1.499463398523076 1.294797558974897 -0.379377646286017 0.835944279500658 0.671955951643402 0.124653774263206 1.346643579320822 0.663486955485061 0.452820553061354 -0.312844164008060 1.593859334854047 0.249353684558817 1.178332358102678 0.038063423786770 1.279522757234707 -0.486841937984512 -0.589953241533092 0.003567771509829 -1.388426252874769 -1.449650956807822 0.194677610997987 1.229435904756925 0.508153701936623 1.934590103207608 1.091290530420199 0.294876536594800 -0.895682512148992 0.280777830352638 1.479694644071247 1.276654833172683 -0.683727721295847 0.857884563572791 0.815961990527562 -1.356441959102952 -0.976381479888332 -0.100367507850471 -0.803006404856898 0.530643190633616 0.064965344174238 -0.589824238526431 -0.047218208986887 -1.059005959029945 -0.872814991295886 -1.038357729068234 -0.959121842741734 -0.103021590715124 -2.129278743300804 -0.681727196526445 0.038183582857753 0.945444091830880 0.255337673314977 -0.534961191188094 0.860886982352470 -1.363141326020247 -0.874179983754844 0.227078655631664 0.382971914152229 -1.349707652743203 1.351735079409886 -1.800938246742793 -1.091887009072125 -0.667977396905135 -0.280293488327924 1.241110888953513 -3.167364298773566 -1.027470685466330 -1.017347025905780 -0.956394735806126 0.762328803041049 2.354776530003616 0.762779735186501 0.425962462867665 1.335176720715455 -0.295189200069427 -0.145224023656144 -0.618679417366441 -1.844802088645465 -1.279786356045389 -2.898009984192718 -2.354937166520608 -1.040008514279497 -1.313005424308483 -0.363713129288111 -0.369203417772512 2.744750061831579 0.009776586903860 -1.154949139109527 0.670318279483990 -0.059244546527163 0.736439312946443 0.083245650116299 -1.059679194950983 0.489971356825773 0.776890437162862 -0.050018683173802 -0.418426682005724 -0.182803162605167 2.224890001123851 -0.401738144116475 0.556763044581375 -0.696202195195374 0.010618760359085 1.386617847024139 0.148717912621465 -2.161725603728855 -1.074213530810167 0.499647359597076 0.071440692164306 -1.075821427040125 1.827099278259880 0.177165830679799 1.015356831993121 1.724174282006814 -0.040278665666503 0.308855628970307 2.179363266865948 -1.189652887266501 0.165025631389809 0.800281893619753 -1.431260311992807 -0.458815171106162 -1.157953525904993 0.172062086458018 -0.715763731838889 -0.012761743188584 0.283109087496332 -0.423203388185879 -0.059628002351904 0.197643839381123 -0.638141481319619 -0.863878703055597 -0.698791129564247 -0.675663131479789 0.635467902975775 1.581557541689090 -1.017164701292882 -0.581408016270811 0.022664694591322 0.564576165206720 1.437858946479192 0.736886851667424 -0.715063582208277 -0.924448961067808 0.684552396585965 -0.463234474797027 0.265105984058990 -1.060027204856446 -0.755896943370194 -1.180079176496736 0.687037943919646 0.757944080627178 0.559828025266755 -0.415820116014246 -0.457299564937920 0.881330803878237 -1.081080336409421 0.305507393482581 0.477813854777318 0.961038162481009 -0.454965798466565 -1.029050467294113 1.422660418153405 -1.071908096594397 -0.116421725498227 0.159990197559616 0.590765119656077 1.742038619778970 -0.323209408668375 2.057546017667850 1.250506082903467 0.107480586311126 -1.871335508950817 -0.479874482001304 -0.704375600452581 -0.828958449501785 0.862696289044345 -1.660684383383413 -1.406853522828957 -0.406174221695961 -2.477389577703127 1.210796336926851 -0.040176293823161 1.081828985696886 0.293134298177509 -0.327730600518799 -0.853161875372051 1.694561672215606 2.362656457246501 0.643765356801243 -1.203347844022963 -1.207504120368925 -0.129416824609907 -1.713688948512382 0.219856627019352 -0.446716866149295 2.007366412060731 0.897838087464310 -0.497201120622002 0.415115154579168 -0.164668430457951 -0.194161895733312 -0.045652503277104 0.399428292279956 -1.218352901305788 1.294015777114983 -0.670648413296763 -2.437391105270932 -1.430990626243315 0.349401464446988 -1.018965583559840 -1.839381904166873 -0.588712112516630 0.331296394343570 0.111161542416183 -1.649112004237294 -0.057720808758444 1.123326054634807 1.011959302321603 -0.834933453463225 -0.128365216606978 -0.046763643153013 1.433581492295722 1.340114779017120 0.105439958854770 0.964455375764075 -1.404502989475053 0.310589750223457 1.198691961949845 2.365463238975005 -1.309209923780933 0.753305965496786 1.556267838163310 -2.086275666679863 0.057945173008544 -0.980157985117899 0.111940720368262 -0.509485771492457 -3.177783624480918 0.103366280807633 0.816025519941958 1.462878402226871 -0.831815057647379 0.324784828334104 -0.005757895019230 0.906589432956808 1.096278667510695 1.159566575518331 -1.271966701645890 1.644392721745285 0.389922247157374 1.051698047297301 0.330831561017671 1.627999338746784 -1.867138578924369 -0.373398583650099 -0.403131301947110 -1.153677919319924 -1.252899100360349 -0.911020659826759 0.059423362846023 0.000180919382383 -0.964193784011928 -0.154060592310968 1.859159107804016 0.508059229024327 -2.575148848361996 -0.374559028823125 0.362892400894049 -0.177625301996847 1.821008722260114 1.543547339055387 0.569447424160390 0.414224964783946 0.001439115269480 1.090475700921663 -0.254042284469076 -0.275413028595716 0.237030701740766 -0.087263198254356 1.583663830597529 -0.439050521055091 0.512349878630053 -0.410455720821420 1.075102510382832 1.581080320465490 -1.471482325339627 -0.373157501783219 -0.116390697255201 0.132475417147329 -0.748674441134664 -0.214971286494412 1.201792337768340 2.075115322132047 0.200881381267187 -2.052556135602960 -1.447923212725947 1.424027079350675 0.410970063489155 1.070483886041872 -0.528607834862502 -0.826028040004223 -0.175081439173046 -0.104518084552107 1.441685165493382 -0.056171449956625 2.887764036359405 1.273294694806750 -0.517072930357957 -1.178558817259687 1.924810816278591 1.201114323169619 0.378670856455753 0.697361322806964 -0.150567147926760 -1.729995789607714 -0.622251158720446 -0.603789782674325 0.386534645442645 0.653288150706923 2.520724881800355 -0.264184603825347 -0.925237976514089 0.577685095565080 -0.698261001356836 0.356240383688794 -2.192816024208528 1.093579094517910 -0.076056338883610 -0.087815594244234 2.193507461581027 1.206360947994940 1.699696299963462 0.234972122910715 1.124241753586907 1.015761599125743 0.749901150124893 -0.510591290303150 0.793460360598990 1.399083481110562 0.630054702716576 1.183514446583552 0.481673085480793 -1.391635455638293 -0.411386964859103 0.123977836033999 -0.370982827366834 0.295587862156519 -0.955834948976156 -1.126575257651824 -0.498083728846306 -0.752064814935536 0.041128274772382 -0.659044649744298 -1.129200613770918 -0.212029508911118 -0.400556365400966 0.113775942673218 2.260855190809954 -0.539128106186266 1.808886825257860 -0.089694377054980 1.652254491122694 2.181714243129778 1.585618994945828 1.307322412649137 -0.772084847883648 -0.258330575242605 -0.746368145694113 -2.063037864387918 -0.423967526679088 0.707626044668391 -1.159974314492388 0.494377509631041 0.029071589929005 1.233964072710412 0.575149598351961 0.328578989562505 1.561323231439592 0.273251490689647 0.721949944567364 2.386816845575830 0.202559589293471 1.693469480259695 1.189305353285053 1.033767918474325 -0.150505928841077 1.275776938907550 1.770986826802750 2.100251766917790 1.699077780286362 2.075703273828533 1.111631152962370 0.218643768149018 -1.289372036128749 0.129255701789189 -0.198711319577291 0.676881923304965 0.128955117974677 -0.386040240332539 0.470058505270876 1.015975944131825 0.280264892663646 -0.259739838285752 -0.544404945650922 0.814819079230930 -1.065260282519809 -0.383761719028087 -1.668415364189422 1.108464486149318 0.998758820446076 0.154732813583919 -0.030836470274360 0.092888859771218 -0.086275580161265 1.027241118761055 0.047827047981386 -1.118716827097491 0.253524414537243 -0.442722575166924 0.018091140769503 1.916388496062297 -1.992711214609299 0.438407790854784 0.452280044150555 -1.183625261553755 -0.232408587056909 0.853049146345879 -1.162077752617661 -2.163322712625621 -0.237480978764148 -0.353691924399992 0.558270469513630 0.088798377731572 1.082361636979695 1.090751882384892 0.574107073312598 0.169394816880749 1.691918907081914 0.203580181636419 -0.066959374710971 0.934928105095925 -0.595333426115526 -1.402920012418416 0.448755306407107 -1.831797324152353 -0.391246605658583 0.152818799356685 -0.014812394213090 0.938690637608139 1.249182889763511 -3.603382355655639 0.739359809968936 -1.533498864789981 0.383761475121375 1.499588037719465 0.749997100857605 -0.573333553344895 0.669011519358133 0.631545923043342 -0.412978375061699 2.835388250777726 -1.029832201812491 0.427976333666281 -0.224823963209667 1.906593107784256 0.154070781924574 0.249973126479433 1.094968622728260 0.796866100613428 1.188090074630158 -0.001263195847885 0.448042241736502 -1.232970944401439 1.376877570359098 0.305697850406070 0.194449262007925 2.323979011889675 2.237158718650195 0.099709838723196 0.118814363678719 -0.740510402182089 -1.031437207471067 0.185987613237618 -0.100948555082275 1.667605557515855 -0.974631206493106 1.011352820603679 0.694092707869327 -0.068500660319482 -0.981822601240020 -0.168298115466171 0.885019134418777 0.638178327955663 1.229994157661863 -1.401513924176375 -0.850163199419191 -2.065345918514065 -0.805008417985079 -0.824552063148403 -0.174800127439662 1.130317018565191 0.837235760668230 0.284874510640947 -2.311922627976947 2.368018884475448 1.947676403905652 -0.725496986760123 0.401578989051398 0.317698994496193 0.177938773093752 1.790937372360988 -0.623422989146590 0.052703523288795 1.251953686935098 0.206128274366992 -1.064508421090124 0.119329424460101 2.301478880821972 -1.233568406579712 0.695136272810413 0.458832157233532 1.428552955342372 -1.631875077594486 -0.080512322065843 0.179959971912609 0.484375109590050 0.239715364939510 0.024087679854151 1.121054442061443 1.002354822568407 1.513123945371579 -0.868839320889388 0.959371494226863 1.096470431359262 1.492726791262864 0.512041392108058 0.152914601232199 0.524367301790985 -3.301268031790579
-0.699652664252014 1.150419771006987 0.542598020986831 0.849262241789344 1.070263576663891 0.656115856937689 0.596876589655631 -1.356803153821277 -0.659543187611138 -0.815683270122042 1.635161391021399 0.698134491618885 0.288442191056358 0.463568081464441 0.568727776386744 -0.115378015817608 -0.834971991431361 -0.383257837040084 0.792977450430273 1.332908405544584 1.926747324054919 -1.110706871650041 0.293200557676734 -0.804110883083842 -0.404117909321555 0.993926358740496 1.634420060617928 -0.996587508176382 -1.797030610707542 -0.769672802984680 -1.211595807071406 0.505194248283541 -0.781759087709409 0.016128986726930 -0.363489767445115 1.189022336892055 -0.113258046261640 0.352113633519374 -0.266472930114063 0.390208894908683 0.080428329342818 1.834269599423579 0.518630274882118 2.643131067804098 -1.168215050179860 -0.100664373083346 0.527188262465898 0.068508029201961 0.681208299487378 -0.437773027611586 -0.112670160041023 -0.414828341895564 -0.232463598099815 0.293652089637802 0.960653312858118 3.097421463008567 0.693699444289815 -0.536614762312354 -0.594131490217791 -0.179337156841228 0.132684239905194 -1.615963451620819 0.461239928062921 -0.050410106703426 -0.071476365128185 0.246610042639478 0.617576698347692 -0.825507215906284 0.211059623703436 1.895246214080371 -0.939767999639196 -0.326519865935928 1.388182937854621 -0.669642247402928 -0.301361062456606 -1.488356699039709 -1.278231867542911 0.712127165363295 -1.194799268672240 0.711656047690403 -1.505213561708069 0.434226547622218 -0.170651846708273 0.194286810052506 0.376487911077020 -0.149346172217671 -0.095030225466473 -1.430338109451254 1.569273685200955 -0.585197025726703 -0.416811840057405 1.346965338109096 0.346735633090870 0.858817974182404 1.113854101185182 -1.156716925364251 0.141079532602898 1.342673352930613 -0.099972152014180 0.698803134380423 0.079648096446180 0.967776386589883 -1.118873617687019 -2.045586932135575 1.117962828512978 -0.464367524919404 1.200379257625487 0.126692023185323 -0.721717356735806 1.109571333658213 -3.043571854674135 -1.078090085952457 -0.435262550589568 -0.869080984666569 -1.675189777554697 0.723070305645661 -1.216919782244572 -0.449261783203466 0.542704207917237 -1.922597919636011 -1.343069063959580 0.621365834876544 -0.479570634660313 -1.343170505477829 0.003021743080068 -0.684454049398874 -2.211435712849181 -1.452416763963975 0.312800193565468 -0.838076931980425 0.867140997679866 0.958607357406138 0.956537371872336 -0.240754562805495 -0.109823326651939 1.264715276296625 -0.182072714211351 1.799971891645936 -0.007273243157377 1.564487558457795 -1.580624841737410 -0.901171149123008 1.946592956316153 -1.795238564722619 -0.039043626767917 0.456847978593667 -0.458816349383589 -0.937269951118709 -0.635781583410858 0.028755744302267 -2.532754546842230 -0.996900131474375 -0.330209189092088 -0.916354560220373 0.879144491024435 0.467968560724165 0.412181444384474 -0.688751982544479 0.408067654033001 0.024274017761708 1.051370625692960 0.269938082004509 0.422998267509653 1.110816402281481 -0.142149815531730 0.512602465079535 -0.496473478248028 0.087198087028674 0.156012879240598 -0.125692832577714 0.299404262913559 -0.452567007264557 -0.930251496633657 -1.040060881888599 -2.673273651658824 -0.362475893272320 -0.938215987273793 0.843800077603956 -0.811335112988418 -0.643781192174782 1.280396546017082 -1.610213486804574 -0.341399131535441 0.375847511626567 -1.174864459264119 -1.185020753216564 -1.493662531374630 -0.198012626909083 0.758011552011124 0.749147926780202 -1.086606078239752 0.235158652631235 0.880668697683021 -2.787972755735916 -0.047948686757958 1.406666385828672 -0.901419976506317 -0.183840805266523 0.194189169773506 -0.989718567557099 -1.172237365629611 -1.811321055340276 -0.893290631484878 -0.130746392697648 -0.315258485046128 -0.412402900767840 -0.674735853615779 -0.118382554249697 -1.756564370273532 -0.417733277029621 -0.442822717518298 -0.850968554595001 -1.122151062970874 1.946985983692597 -2.323987279300374 -1.234025589104760 -1.407070804344254 -0.542259729811460 0.758010493169231 -1.966544133328565 0.593906851649832 -0.352737366694443 -0.128583932663778 -0.257257073693225 -0.081486739968288 1.090278437029537 1.252940804399815 -1.463419498844211 -1.106310957880889 -1.273083172403483 -1.162900535173476 -1.801616614209815 -0.223325093220443 0.215690899348764 -0.659104526548653 0.060499951729680 1.540415329145723 -1.256527605674997 0.136047128020985 -0.476743456129883 -2.279288595779157 -0.041239380628638 -2.425411705198992 -1.182870091613907 0.019060661374264 0.345970788647442 0.730799365190699 -3.352988216072866 -1.848084167543847 -0.933796460956701 -0.228483377050689 1.250042056916025 -1.431932787803676 0.549697060007518 0.262300245203693 -0.650063377782239 0.598697365065205 0.016406009307085 -0.847671053016046 0.102144926384203 0.349451283181426 -1.649885391654152 -1.698968894995249 2.070101018946567 -0.794069135407121 -0.015284806929111 0.205946485454237 -1.076357452592750 -2.868142580452426 -2.561300199754667 -1.594380183268748 -1.459381761442194 0.412787051479642 0.528245866210030 -1.323498606731616 -0.752750616632450 -0.224636625682530 0.737187599994354 -0.126694958238515 -0.165268679427600 0.117507485486754 0.207772532772764 -1.690411304187815 -1.905530232775976 -0.012994997005052 -0.128818303733219 -0.750341364124137 -1.001645284134123 -0.411110975352389 0.114801836447156 1.856082320225803 0.853895088115569 1.405798301925158 0.346475315076835 0.502266681100066 1.889171173618378 -1.610231559192898 -2.810022901678781 -0.097559355186394 -1.473193830364047 -1.402375722208673 0.160305537317853 -0.950033080673605 0.776978640388349 -3.665064018996770 -0.089290076061842 0.859093169059875 -0.409007572626564 -0.229955596784215 0.904139509179688 -0.501391873862222 -0.555651901662384 -0.226426073794193 0.492601191004994 0.218581985378012 0.624264194126740 0.126071024469751 1.205718325480501 -0.492348081297022 -1.597644671224408 0.112300808855749 0.106325645486866 0.969313397775699 0.916433169273687 1.690367434186961 -1.153099370343312 0.570958314421577 -0.750969746024938 0.522806383160877 0.345057443165501 1.302751598998588 2.538441026417924 -1.044384355581409 0.025996621613710 -0.178381491945902 0.210671949865736 -0.550687695166460 0.282954506673982 -0.712200191535661 0.453949838538221 -0.536166555794927 -0.622732260723182 -1.357605092006184 0.460386492590667 0.754443250157179 -1.305899463560805 1.042247500946500 -0.858274610897780 -0.203607924568623 -0.257430629994682 -0.371332332082969 2.180802144631734 2.277634485409427 -0.983924928991286 -0.715241542614392 1.412690384459407 0.129680122149548 1.073145748355608 0.738485548199114 -0.150975305479216 1.165296173749839 0.811146794785854 -0.027223666075840 2.049734623037824 0.266016578489735 -1.576257367178185 -2.233572412028108 0.987650786033207 -1.695959566319159 -0.186909018322885 -0.531015174463050 0.310783792944184 0.401911268725714 -0.206834974973429 -0.444225316387672 0.241535824472969 -0.454188477606737 -1.045739259814069 1.944379203778687 0.306756266575773 1.558431660994879 -1.205733470945025 -0.486925171072495 -0.400626265983781 0.855766303421772 -0.548233764626212 -0.545140587222368 0.160386004209924 2.334794114546725 0.550413334458382 -1.546428345791470 -0.008307042099504 0.208715503601074 0.313361201320889 -0.800807162990736 -1.155563651130682 0.585545632790532 -1.909833305969940 0.727421763682714 0.454602610777973 0.739008564796162 1.355149777942827 -1.727716476196873 0.731141773297063 -0.681290350780568 0.687363818379476 1.185729646861967 1.488783787400424 2.719727837374903 -0.861313573245198 -0.460374741151583 0.915868244207455 -0.903670886282436 -1.353858213709428 1.016201482007972 -0.952751938006275 -0.119304298785169 0.114059922832303 0.893529291458394 -0.345584185879275 0.229560614780246 -0.069416656309874 -0.614914444984254 0.794583712594124 -0.835569747103817 -0.123932248083920 0.516940470978691 1.910415194671775 0.436417790896020 1.923464400679440 -0.317467819637903 -0.887083497311353 1.523391171944635 1.093179365696146 2.734125118647280 2.750818854628664 -0.605611325312936 -0.060399351986662 -3.817347372101009 -1.294408290931657 -3.472502427494822 -2.648666333048117 -1.175507172201460 -1.278621800191883 -2.077623067733465 1.299779753849533 -0.209897326538863 0.777823295456878 -0.043653853307007 -1.764624512493042 1.895004570568833 1.150644435477648 0.110549750451949 0.335269354487926 1.961745304983799 0.523942776991794 -0.906907758415416 0.654967087450332 0.103938899945918 -0.304359545141860 1.700582074601458 1.533051889283237 1.973478806878913 1.717092659873234 -0.405532763637528 -0.814820466195057 -1.481696017145033 -1.661360105933561 -0.692314300684665 -1.596892313789880 -1.207420159910038 -0.408037792216214 -1.738827933205594 1.610047717415835 -0.714807377210144 0.478253358783948 -0.446734927963191 -0.880344251221725 0.463805876943129 1.243864125147300 -0.716637815399515 -1.974419096301122 -1.503526784586715 0.268496809625252 0.501345530829027 1.286270912486372 1.745694914662502 5.062301110655255 1.667344959124708 0.406692500334145 1.324060534569010 -1.310216771593599 -2.220308788870980 -2.409589094310259 2.166151601635695 -0.133104619616590 -0.722780933094210 -0.538777581682177 -1.570187146451586 1.194107676370205 0.327699067100537 1.174389356982909 0.960283593021067 0.391928680754578 0.005363375749052 0.656190128582458 0.158115903230002 -0.720212261263346 -1.553371893141807 -2.444228915046096 -0.594174236504809 -1.131069088625027 0.485696773142645 3.048285028692506 1.895499144708054 2.484751026478419 3.519501398236382 1.890071889231635 0.649008088174336 -1.724356176213198 0.481540968847554 -0.943331786064869 -1.603762322254203 -0.788943733875451 0.521730587254852 1.183823613552767 -0.418499828706641 2.120199740529705 -0.043784938452218 1.511645220570212 0.808698370167243 -1.876152430325571 -1.280166192099853 1.047019004358672 0.114480797820099 -0.821117499387642 -0.325343259327287 -2.459903949683992 -0.062872626757338 -0.290083055601289 -0.920266344804214 1.250713627646437 0.985913602706930 -0.078223493932964 -0.263193213783514 0.980476059347170 1.607182249739004 0.860838865837329 0.003307150984020 0.096697012477961 0.219300588302003 -0.990866192282652 0.536292554415030 0.002286143542978 0.395829191582764 1.573984971256208 -1.395434746942423 -0.282747281037832 0.779855697400675 0.048490201362354 0.058693118225721 -0.072755994526464 -0.009741262294482 0.313748948187619 0.865687098093342 -2.710636481056292 -1.408127529157849 0.225717044154427 -1.123521681442677 -0.223711098371305 0.382914792843626 0.641664052528574 0.596096459819762 -0.728319488913521 -0.608278096995560 1.275585065198023 -0.624365319778765 1.592230387063992 1.249268450370266 1.318766743736764 -0.728080124137854 1.697505270775646 -0.591912225736477 -1.248270380964820 -1.030316399380800 0.262474449885034 -1.405977240650635 -0.363839530828416 -1.048203441207337 -0.241523318945649 -1.823449353454538 0.444568096506891 0.152766503158973 -2.633316538513857 -0.786123545108500 0.022784489002954 -0.962315709236082 0.769317462164153 0.999695050699767 0.733275291172830 0.474719956814512 -0.862143840253681 0.203317936905402 -0.992476535443272 -0.256869161577415 0.194250710300909 0.377928864221268 -0.036104329224899 0.827265280271161 0.524669649434137 2.290098352590423 1.777260185118213 -0.370201533952909 -0.251908034330516 0.506875561165260 0.883568176115562 -0.849822049870807 -1.395312360205881 -2.197023735826118 0.592867990341604 -0.525058432750943 -0.518690890970757 -1.272830738666210 -0.376520869062321 -0.261003710040549 1.387145518106933 -0.449004126782735 -2.106147198218798 -0.236656513311250 -1.125850522937404 0.455203800571704 -0.496838741115843 -0.216141595028531 -0.079924195686132 1.400950808092833 1.557856321176254 1.160556164858086 1.527162064035015 0.328200545136140 -0.806460213214699 -1.578603281410994 -0.264089720421975 -2.364475929338671 -1.603194168047251 0.090860525098631 0.270686780673061 -0.978282151268851 -0.554490932021199 -0.119045509983305 -1.032497036725313 -0.339634171204584 -2.471150081289203 -2.137318399805964 0.071002025814285 -0.904502125324636 -0.249525912746247 2.220550233199952 -0.610591076181030 -0.160219288075325 -1.055396589964005 0.362956427563754 0.821785593421203 1.049709597934777 1.551393101825269 -0.462254870852859 -0.155831780672902 0.226366140474974 0.683576725506300 0.192685991232220 -1.535336664529722 0.177016919342585 1.110605434118328 -0.988576630924670 -2.431798825835885 -0.678434401316177 -1.107525252618886 -0.788258927063284 -0.732412452024302 -2.265264022581761 -1.129677934323924 -2.867956301443485 -0.901213006355366 -1.832719482229372 -1.816432235263533 -0.298072355548807 -0.575623456582221 0.184660831002660 -0.941964597554868 -2.450731394257309 0.361551416544887 0.370620891122330 2.061478742902151 -0.453547984784778 -0.308397523892346 -0.327928904276772 0.447471621896483 -0.273100670206004 1.387159266696315 1.088486732817622 -2.195620489667922 0.025916006581830 0.710089408685217 0.627207114344108 -1.621044389512641 0.597907239712673 -2.228607023594661 -1.101392656292244 -1.558479822917059 -1.159975123516918 0.838509229936847 -0.991730470069654 -1.186539674117158 -2.325575467425020 -2.419176318514305 -2.534859802406399 -2.234031262433291 -1.427045000322069 -0.177261002289664 0.763234169236593 -0.495160506642811 -1.168454197101056 -1.923342850699524 0.491169695819181 -0.724828523735554 1.149858051468502 -0.773403604364010 1.153273172155904 0.220262716088705 2.577618895499687 0.276421273193595 -1.311175290928089 -1.517989679958236 -1.016531426511021 -0.478170698040100 -1.535367940077278 0.076374775137276 -1.351690865639399 0.022179227033307 -1.819913792099495 -1.124919801575394 -1.846827677596848 -0.924809963085040 -2.124299548513377 -3.443388019589946 -1.058068316937387 -0.004992200637521 0.606812511846773 -0.581938422548145 -1.478103313151300 0.674938663205930 -1.090498421050611 1.394643006634600 0.834311925219802 -1.142026058117502 -0.205781522135738 1.364404930614278 0.020068511791735 -1.740497529096846 1.658434034231084 -1.014401463304636 1.087433989222607 -1.306614182196021 0.329919892727332 1.422492882434084 -1.462848049549994 -0.528062654707569 0.727002544490914 0.118897083673126 0.636668107927311 0.445546104654727 -1.324874932084843 0.310484398756603 -0.881616114067022 -1.148893671166674 0.008756873745104 -1.015975508064979 0.673776113810504 3.153867772118900 1.183237906417142 0.243103886017184 -0.366980193934095 0.344743489559787 0.864714495482371 -0.061750338734842
0.874474344135554 0.775858998641819 -1.042900197983504 0.657852141316256 1.297232467643713 -1.209489147456942 0.253891723454856 0.154745844236978 -1.706011215317486 -0.443921082978449 -0.229122377659382 -0.374968935799969 -2.022426642256157 -1.162434023567148 2.745391359262583 -1.962207437792503 0.475856054044715 -0.332902619933310 0.314564739622906 -0.202653503266879 0.243503076465473 -0.558348983203777 0.329684420244723 1.421457353995939 -1.140599162824455 0.002083085455716 -0.406959949936569 1.299503187673913 -0.919072760256213 -0.598604527508933 0.106193884564229 -0.440216926047142 1.048179647262030 -1.887783893051745 -1.061409673996259 -1.829672835881926 0.543216794980124 2.493418462996147 -1.041386432635996 0.020369015965484 0.702367616801777 -1.299083612609614 0.406128453994778 -0.246632712060459 0.105701010705257 -0.830945705432314 -0.493869160152182 -0.227185728368384 -1.097582701103385 0.007023671240653 -0.982012294138371 -1.926068217152239 0.816268073134067 -0.197040568523202 1.698401912308147 -0.193156476782836 0.978431277084021 -0.197362496760771 0.712428075286177 -1.611176602402602 -0.792250317636328 -0.249241044596611 -0.584649181677790 2.911111295263461 -1.415347803582266 -0.787286013106850 0.944748850206317 0.127838074861017 0.511245312795784 0.899481680469391 -0.547322776693657 1.939208994287122 0.055330984017652 -0.457785959862682 0.552527299007593 -1.316417909694699 1.134282975138407 -1.099877651157318 -1.927579134283803 0.991122241070399 0.626014040506895 1.096999701739979 0.619332354965046 0.992072098689482 0.550164619293190 1.386529236569040 1.259669688680761 0.016054653636456 -3.032496385094700 -0.700467837088774 -0.490016354677532 1.224591692489055 -0.364877609579314 0.798517187699247 0.360810790965223 0.054334874863406 0.415060675632850 1.594707020454686 -0.577208457390614 0.842830569234656 1.529335623682360 1.368166637851671 0.381558684516354 -0.114970090011612 -1.213035344990560 0.298239327220740 -0.476053844376905 1.897453580545071 1.299051203430332 -0.138319609446343 -1.130145722976605 -1.785992076104284 0.374104627826103 -0.417638167331692 0.191371634284112 0.351310164690919 -0.204805443620530 -0.966613540501227 1.056866528850667 -0.600944216368193 0.230297107943099 -0.063420039222047 0.162497367095974 0.196416899586956 0.211715791119206 1.638229913254878 1.204024901227815 0.718040192338774 0.682598578060449 1.428791037735909 0.873828784763101 0.139137351223568 -0.705942151829158 0.914788712367980 0.008003458189495 -0.328193561667032 -2.041531151812555 1.183591484809610 0.223299977642710 1.700977332794041 -0.428948194600444 1.470622072418023 -0.650328433772427 -0.629329876345312 1.435572476842451 -0.399239618462818 -1.650709637364854 0.397400071340336 -0.442981449977967 -0.822036431972141 0.556627177768255 -1.522068033235176 0.948771274179591 -0.810389834050492 1.321381146215740 0.355019319302585 -0.868516434013563 -1.142017233048292 -2.529422514544287 -0.675514862366327 -1.436882521050131 0.566549686286692 -1.169469729047305 -1.779907034427623 -0.014126403997388 -1.027979051778621 -0.099081384652148 0.201225189021382 0.481533270489658 0.657550739357047 -1.413925336555754 -0.201111079734667 0.770313105514431 -0.146012418285925 -0.096673368242955 2.114711811340812 -1.130440499713786 1.148978186519244 1.268880248342333 -1.621461899218426 -0.866371425041220 0.521227671686623 -0.366837716425680 0.948499315364418 0.014284877622740 -1.573146275554103 -0.902629048073872 -0.218009677953515 -0.317414860195934 0.292963569659989 -1.724016053386826 -1.226570118511896 -0.447073401238825 -1.229302895946688 -0.363149624904381 -0.892166570557083 -1.861697940906282 0.935050303948529 -0.426994020770852 0.943152533712296 -0.785458348004385 1.403769974555268 0.384751838874181 1.394746635679581 -1.380975323166847 -0.492529812405126 1.705655359942358 -1.092220084150395 -1.861454566044485 0.323073354908430 -0.634872853036159 -0.543093148757093 -0.163785693840061 -1.788622548501302 0.243043148968592 0.306850232954733 -0.447334875581088 0.163072744837465 -0.203293707091769 -1.673682201780923 -1.500753858856092 -0.565993020856201 -0.512695725368131 1.087826842231561 1.282961283782485 0.089900152315342 -0.391798507791431 -0.360775524824263 0.042970101642084 2.996077982834836 1.013247886237157 -0.216466954731456 0.295302422120602 1.264587088022453 1.730158239785667 1.036488398041488 0.842694389448887 0.106300277122392 -0.297264563170692 -0.040441169467301 -1.001456516629700 -1.009232613478180 0.566682772036561 -1.537680715896159 0.164762918618958 -0.286720344104664 2.051878235605437 -1.401588477245899 0.457159772908169 -0.250241416789833 -2.336348228712186 -0.332768409077272 -0.668900830871934 -0.453512763002352 0.967025787935778 -0.452673294066591 2.285406320295990 3.484113169063026 1.142613399373340 2.464981249525577 -1.238838971534217 -0.335793401147041 -0.491264065033096 -0.389176781130683 -0.194739530111135 0.042684746401224 -1.098033879331216 -2.083010697719671 -0.449738625975183 -1.229036848037877 0.057590327631258 1.169846175540486 1.203494565823409 1.478277900425929 0.431150124061736 -0.811503163941858 -1.702098409167174 0.114792471572951 -0.083159705321177 -0.301004570965924 0.665209913769163 -0.207513662451871 -0.029601173392335 -0.043380407378098 -1.218128117373703 1.861960657442961 1.261225993057550 -1.363699737079591 -0.113422873980589 -0.742127452742390 -2.025247050615172 -2.259315455087906 -1.024870232968376 -3.163852690455367 -2.580175211943095 -0.135332269772830 0.273044769479428 0.289150398393246 -0.061924614063186 1.663560522682063 0.780043380778278 -0.610167522682199 0.883211584587409 -0.721290681859469 -0.621176823302013 -1.281564916925599 -1.623252806704498 -1.398136280727058 -0.270236045243124 0.283632924585596 -1.624979434032310 -0.285477309050318 -0.352208809222973 0.335992477186991 -0.493224090988714 -0.259464645939275 -0.932424228196038 -0.611593716863351 -0.557169001246642 0.203177088715318 -1.487550518348314 -3.541501494618365 0.165855569465266 2.083555645361356 1.885159574432340 1.313965299056422 1.304936895177701 -0.363538002439168 0.864330087180486 2.450958648492011 0.049173840782817 -0.255051326097784 0.914083968132401 1.309731751829943 -1.404779678789498 -1.175055637197003 -1.318100683445480 0.294854791960244 -1.029784729798340 -0.361503681146059 -3.243649986328011 -1.383686490498766 -3.095498856937908 -2.186345017855465 -0.661334002609769 0.118086314666691 -1.523778856478563 -1.471928132211427 -2.513636325745253 -1.367399972749970 2.938923025811795 3.217508818919284 2.666028810453352 1.953155217258557 1.431723543216898 1.045364182429934 1.614310461695526 1.357968391068317 1.437195917539236 1.465363079043226 1.694306081344593 0.638669888092873 1.677178321536903 0.454577264808484 0.011580063990554 -1.219439451254408 -0.390939006135393 0.595652650353344 -1.085435108850705 -1.707228014043872 -1.287063019347880 -2.696652261179917 -1.836337360092642 -2.101605710381913 -1.931510866640347 -1.872938894881593 -0.068706972378565 0.125560099379024 0.893842704797283 2.843706504234830 3.940687772685346 1.330271799768104 0.739593366807341 2.111394333747341 0.913143063749124 0.879111791468838 -1.122148853963352 -0.049019851515559 1.575728849811271 0.962191628888994 -0.677904626215548 1.178326604887521 0.998386215900537 -1.033957078166627 -0.898646121823972 0.075418018085910 -1.064016001048004 -1.286339569956281 -1.336089460278195 0.110610214106306 -0.409063729855281 -0.174041595535983 -0.687439037436515 0.561042155556841 0.664325401128646 -0.005935186186683 2.744894047836673 2.362768998890239 2.380134413319303 1.321409802933479 2.530565132302758 0.905157585104204 0.433614941117228 -1.462130559964647 -0.462093213098702 -1.620558224461503 -0.119616389741110 -1.637593673254605 0.947707347853580 2.774154440791559 -0.001131803601934 -0.632762565523633 0.730907311300337 1.090951746596049 2.143227174312769 -0.298919263730445 0.952833795308316 -0.356146134451860 -0.800575372653405 -1.960145479893836 0.681962936729743 -0.681870110715483 0.829868065975863 0.817276826492749 2.789199190721196 2.568909544930817 1.917246462578227 1.561657912597558 -1.141476150109398 1.005430181041223 -1.054910948257719 -0.295229145775894 -0.726619070335551 -2.235966938792092 -1.753107594042611 -1.711238817296176 -0.015490543993469 0.487446106905213 1.296011913648351 0.578961310199832 0.086105945882915 0.826632827054451 0.015892705723938 0.729923547080788 0.174518140356384 0.311305289422751 1.292735535973035 0.717465552348354 -1.403990420291073 0.570089268091270 1.845790781561248 3.149711590174146 2.237043114556728 1.556260133507329 1.266213747880135 -0.115274844328188 -0.078065858904372 -1.641697636146924 0.627283471961632 -0.510876748903015 1.003004429676491 -0.661483114713947 -0.332041598683590 -0.646486930852560 -0.315365437396600 -0.499506966610536 -0.004352625180605 -0.485764681748503 -1.145648872479438 1.129578788614025 0.030647969307315 0.447130013313343 0.098604820425542 -0.602305096261750 0.990064967917696 1.470626331052129 -1.000560407383809 0.022775953165468 0.880647856761598 4.703762351454728 1.555252763224432 2.304473998847295 1.477675187023414 -0.042628923255294 -0.398867689169191 -0.478696040970152 -1.063929274451610 -0.210750289001811 -0.997196296691895 -0.534702253413637 -1.001705437042042 0.590177893314880 0.413099750281666 -2.158643998595629 -0.394232547439406 -0.566198751940834 -1.737682850226646 0.651927809235436 -0.414172972530354 1.378948044208582 -0.248723187426353 -0.264041555404890 -0.637177408091696 -0.257705827591940 1.314122574272358 1.260522180576142 0.757459210240108 3.463713948793873 2.037671250370342 0.071714343914580 -0.224262505034430 -0.293333059306321 0.885089362877255 0.314412116526750 -0.156867270976391 0.216244856024982 0.807017988415351 1.372695114755950 -1.330059631406905 -0.526942769736690 -0.590221588965491 -0.549294202118241 -1.188072218117813 1.246108934294321 0.434762501530290 1.994832645506964 -1.134784554077162 -0.535033786146407 -0.866333179770579 -0.808506527333504 -0.683582502529404 0.358450396243371 -0.453561774627235 -0.442706711526977 -0.531211417144631 -0.958817909122260 1.557959986840201 1.997807772468609 -0.394289822501983 0.298019725647207 0.537092577208396 -0.286153411702486 -0.422827004950905 -0.977776471058917 -1.459825250014334 1.104740915208109 -0.899440161719430 1.298955177794157 0.737876274496500 -0.607373358951383 1.044164260902904 0.700696455894590 -0.832579018387435 1.043077001282156 -0.402946593580277 -0.052942242975002 -1.075769629663396 0.236309663173184 -0.161972046492491 0.044123384878085 0.011985215651663 -0.568996417074215 -1.785963626225906 -1.627385204881801 -0.987997080647043 0.122212437684113 -0.913938924401322 -1.079418415575712 1.297221016922751 0.366822820793389 -0.574312575159777 -0.033881373231643 -2.863131267728990 0.844483044934941 -0.449010013148215 0.962043190975053 -0.458374906126508 0.769533015940694 0.672772814063700 -0.375112666354688 0.003322919711141 -0.831174846381606 -0.275681330398718 0.350892975512428 2.072621062631832 -0.569952211461356 0.290629448568814 -1.604831664953872 -0.985528860455160 -1.827567226016946 -1.535534365471240 -0.030268563710082 -1.381843604196530 -0.745073586585709 -0.695083300367514 0.841688652855093 -0.974402718272042 2.810223649265078 -0.681282963088903 0.066515773833458 0.016959482476666 -0.468798879719842 0.014750415447122 0.214615432733357 -0.191318682410788 -0.464742643823015 -0.454313387946162 0.196367951741316 -0.019421526657235 -0.551300622679957 -0.688318692593919 1.866349291167621 0.650778029838112 0.473285183833883 -0.060360981790906 -0.722385993694885 0.839490033938913 -1.037299251138168 -1.616986228634334 0.405541252393946 -1.853195047342268 1.693638562029685 0.401220715960737 -0.052821013083324 -0.281698905977783 0.684192025154059 -1.800047607397967 -0.166477075397465 -0.651125497466027 0.623440138873151 0.413666113238429 -0.156615041160755 0.729743344897270 0.315992387023960 -0.830603095434135 -0.441225745787002 1.956518580518152 1.392305200365616 0.619506271805434 0.332372028067519 0.000878413987138 1.949178409986302 0.365277034775492 0.145275795891683 -0.383741181295940 1.391188984329853 -1.587205159636349 1.866512582608960 -0.773811336625991 -0.023907336629574 0.898554075162273 -0.186562109604282 0.305518015942779 0.009651026896908 0.982155781592258 0.334748568527119 0.867278143196565 1.073395853150295 -0.241838597349533 -1.347731157438435 0.777236155840946 -0.004097716373995 -0.007233102191985 -1.136886783616154 -1.838564341804941 1.630230451917256 -0.662534207700508 -0.078167013322437 -1.558054253480206 -1.087460912497695 -0.033363740545408 -1.612106730562073 -0.101503521454891 0.878188213981266 -0.957708065150480 -0.973345038839873 -1.317771297981499 -1.133564000852997 -0.409348621769483 1.309509207977219 0.490914932831373 -0.494872973915033 1.153851507549873 0.267138313355752 0.359500895749611 0.590760986102518 -1.187580485025028 0.119661652073922 0.690554238232260 0.009778890034842 0.462533918183695 -0.609469865434038 0.517237607818702 0.242195130368690 -0.827632523755316 0.760739865704609 -0.261616341915541 0.951930865674208 -1.066947618529288 -2.220838561938086 -0.207156277454154 -0.019154107328670 -1.193835828776974 -0.521335437010757 0.783992775804268 0.411428573618033 -2.151699932092548 -0.066175154903936 -0.237612455680332 -1.393701228019373 0.639616226365882 -0.331294893510179 -0.108871964201469 -1.218236533080503 1.681287032901321 -0.480640877745211 0.474246063369235 -1.202237649438266 0.061174959736790 1.941445070884698 -0.689815409822929 -1.722622381586310 0.318498062698955 -0.826286783855505 2.475569577108922 1.121968170308633 0.483658570664874 -2.405858631085648 -0.178989787771000 2.020674321260918 -1.064107933022332 -0.781504783181717 -0.122436403024168 -0.043864303478780 1.421970023138216 -0.725473669616407 -3.209924308786771 -0.390921282533703 1.491735623981359 1.698591192250076 -1.863589664193732 0.814130595719113 0.639696132274897 1.003549672252366 0.791231050704257 -1.673932177539628 -1.037142235854305 1.364454217016711 0.899873007588651 0.657969667860855 -0.202648739229664 0.063566297275300 -0.918586754700805 -0.325761336698470 0.390556614909344 -1.231628896865207 -0.006410475787862 0.262035804239885 2.521192228144317 0.208777133712577 -0.657894018987521 1.193422721715798 0.174819492773042 -1.331845838788825 1.186741819442819 -0.046691731942311 -1.701846661148808 0.008013334237017 0.115900575525250 1.027552479372387 1.700091543391938 1.725741393211163 -0.283172395549922 2.603198335831725
-0.344948803977157 0.751575085515424 -0.003748753745326 2.361598805116326 -1.096951949963383 0.049510811892991 -1.095328698192434 0.569607699921141 -1.503350670650002 0.302303271941749 1.488245292791822 -0.318792047574530 -1.635048392678578 -1.248802970250040 -0.612137558859938 1.217910882988467 1.810633771817930 -0.086040182123986 -1.380072259684185 0.647433946009797 1.025922476160326 0.085589894705224 -1.636349681994677 0.711454056154251 0.187679366337079 0.346928935234804 0.156166147170333 -1.876904662739602 1.759465595624397 0.106286555602335 -0.659517584543415 -0.352589781559720 -1.878326930452202 -0.751028578852033 0.542769348630375 0.489084139915792 0.388780409407251 1.044588194942933 2.251630696493619 -1.711130910280400 1.297198362785849 -0.608438560944177 -0.822130077295767 2.639461055319542 -1.199563742628906 0.334995402439310 1.009242656106085 0.899874638252589 -2.052006454768366 0.364974292132560 -1.096108107977569 0.743902342980411 -0.790367665981191 -0.053241301094735 0.220637182605146 -0.213481767967993 0.054125071642324 0.296401911385746 0.846942785130941 -1.879598313870827 -0.359778456455266 0.947526489209578 -0.984209822917830 0.250712481169323 -1.074948749742096 0.321929799983569 0.691569104305066 0.459087240853895 0.478513806496754 1.330712175171233 -0.133106543840816 0.800617087589779 -0.965668224379341 1.847607897427596 -0.602292193621615 1.352103135864707 0.940194025098437 1.811856625314395 0.387695953277710 1.871582500049009 -1.137306239811608 -0.014424870361503 -0.877637178932610 0.119460146884934 -0.665601983424414 -0.241326094406975 -1.833251335329727 1.533079802324374 -0.010000053888630 0.696245552726344 0.429356508962134 -0.655586088456221 1.364061221696903 2.891484572276169 -0.937879302889359 1.096415772004200 0.671290829659341 0.031748097464724 -0.366456414704945 -0.304192709499762 -0.481640531853552 -1.776993898088965 1.251892803720679 0.863118177233085 0.674886157048624 0.553592716219516 -0.132128477252347 0.572358919976005 0.117133694120543 1.006561743061332 -0.053977995251033 -0.058141311354199 0.357993537501429 1.293834432488438 1.757079195041562 0.292791495514608 -0.146451795925734 -0.793449768682625 -2.718056833258976 0.171772891438001 0.387889307627091 -3.219112413071276 -0.551769828485889 -1.011376727269155 -0.809989328433192 -2.554801307908600 0.199898608724601 0.045285199481929 -1.455352713841028 -0.245160667488798 1.393371460047170 -0.587230958724804 1.027413692774188 1.155073346839776 1.083924972296311 1.744308603766283 1.244158118510639 0.901407414582437 0.062796141958615 1.552477570426961 -0.526617874605108 -0.835354340597841 -0.116034430438100 0.184111289395769 -1.196267773450515 -0.620695537519084 -2.257985337609681 -1.869684362135462 -0.080478978164433 -2.119350611706500 -0.138130116389970 -1.160633110717407 -1.072225427971656 -1.775486026196978 -0.244554460079826 -1.860633466927394 -1.487046661139096 1.797720473778712 -1.480778310988847 -1.207734437944591 0.616591182794968 -0.631253499878655 0.498729885957870 1.206734748852507 0.667645301311587 1.442214467957866 0.604398668789192 0.819441342741935 0.998753161942763 -0.320354055107406 0.844676129278155 1.364348807359408 -0.487745139191755 -0.474479042057407 0.909726101581776 0.391611204309077 -1.705600042121715 -0.609813005996071 -0.946011459145029 -1.402716920413456 0.680326242186499 -0.381891741177297 -2.578244527240392 -0.393896518849893 -0.447438303908283 -1.682739539560602 -0.531724936748488 -0.075349240303500 0.284720846726948 1.959904254017748 0.979259080912950 2.277862293592207 1.449382869955854 1.119605143401430 0.872384339735599 0.172499259026609 -1.557489378866921 2.571341236483613 -0.836991355389748 0.018084744567744 1.095570697479730 -1.665722718162199 -0.487889822543317 -0.191513969171115 -1.304777840784542 -0.855789463506548 0.460325386610894 -2.175693173858122 -0.235816827567433 1.357814933404291 1.018014770582450 -0.037242967928952 1.688416265183706 -1.045944246974591 0.246701258180015 -1.103810468362443 -0.096371978431494 -0.521989682428026 1.171362515458682 2.656311412749114 0.057093098255539 -0.000759920963255 0.505744766958076 0.088108142633329 1.651567034387804 -0.259743980136588 -0.306113785048169 1.275723448970929 -1.210015906032394 0.555340818418193 -1.839055912712755 -0.364834725714275 1.840996983800046 -1.079060035510572 1.238317744955448 0.349872795628239 -0.365365450977868 -0.540329667644652 -2.220202057321937 -0.001932662613530 1.467915775233279 -0.505600578976973 -0.283786075274225 -0.506435869978251 -0.588625027698456 -1.848914714566692 0.850095087080642 3.977674842387537 1.347110239037257 0.886083315397757 1.197721466755496 -0.681658332375052 -0.436389871006089 1.502242507925725 -0.384063963052124 0.391090464846999 -1.084868352950600 -1.042853307712316 -1.312513688905729 1.615028403173701 0.940915795743650 0.603289700808969 1.462668612957172 0.553208704949942 1.761126819696516 -0.406427286535719 -0.546443934853997 -3.838574344449316 -0.811186472126537 0.868209267832824 -0.208316438605097 -0.421529729686295 -0.163936198816247 0.099918204408973 1.566832136889187 2.454675282661608 1.340661498166380 0.612177207231277 -0.909037972110589 2.274699918303593 0.416201177571783 1.439060952000617 1.228041367575348 0.299190777805748 0.617718903262049 0.094532965042672 1.615275755997822 0.486383012388676 1.707883959288958 2.096163314521658 2.180759718962634 2.444935427491124 1.277661605588208 0.973831491375836 0.220922728609502 -2.645293955828886 -0.428275507994060 -2.574999907863674 -0.177463722541010 -1.433324781290180 -1.685118903084399 -0.206919649617435 2.094841055600563 2.399954022561243 2.469864090066728 0.423759696902500 0.506704387224209 0.128067896456217 -1.108082012650736 0.865254997029906 -1.310621476100923 -0.544835899188432 1.346865275787516 3.479471050705107 1.826874383826262 3.546275363847255 0.728432424751220 -0.418144251643307 1.367785148575396 1.575672839547227 0.893558217178164 1.533052327675253 0.279259123374364 -2.001905580493982 -1.418980810052758 -1.007256291229107 -0.477125338769905 -1.460286999789416 0.913223462521434 2.980887211366838 2.151474410020529 -0.659452455555328 1.941107975639787 -0.367528059209522 2.618118974278983 0.420463046558089 0.386471283451721 1.295859958981219 -0.369658961775465 0.189021125976618 0.985010238316845 1.927799385402263 2.516963389806664 1.939723046044696 2.983418333515468 0.831644875874597 -0.834007885839537 0.471631034169874 0.966942805386471 0.936721729467161 -1.053421442022375 -2.941096910410954 0.805443867283085 -3.272613045463275 -1.573656185027937 -0.265811005716122 1.315541874397964 1.617523903261543 0.128141538952607 1.237671943687875 0.805450098399223 -1.052922410947760 0.859040607300526 0.092988303642385 1.606007981067347 -0.589685707908036 1.365256129615724 -0.819421878293721 -2.002677713593392 2.172412473654536 2.578158918219135 0.859457217906759 -0.644968850882836 -0.063288871887422 0.609143462850098 0.773280845734243 0.158040352072156 0.639242289620933 -0.690932333674750 -0.328043942480988 0.159920860113599 -0.767017268584798 -0.131418080187010 -0.220812944170004 1.259619477107268 2.837372580269192 3.609474648696262 1.498130517519251 -0.724518576993036 0.065517335096674 -0.737049553071792 -0.977368991718054 0.740499563375090 0.001230970323697 -1.097386560579639 -1.467465350216134 0.679031951155876 -0.037522611961101 1.176014095637784 0.505610206110326 0.699157082199454 0.527296169323632 0.733776675150737 -0.393089309218941 0.527148652268235 1.383531752922698 -2.452241651711739 -1.045784447025744 -0.925491177393458 0.471644570826899 -0.797430250504406 0.775592255151142 2.259673412311825 0.492894309611340 1.666741440860326 0.565411434960010 0.649744689729748 -2.372161993186247 -1.261673178916110 -0.214310655953331 0.068306721500401 2.356588837144401 -0.999885077246763 1.602808436661699 -1.523054126668235 0.255606811979988 -0.547627847468480 -0.093520010265879 -0.686810385613985 1.088948330083683 0.989165097996504 0.424067193660907 -0.539648442211631 0.864093687373563 -1.777130425949947 0.884452434791732 -0.557543229235219 -1.155638642411517 1.891728784905342 0.445199191472876 -0.536014210273355 -0.580880175186875 -0.706766121043535 0.196647100401071 -0.833398048898355 0.143168358966481 -0.810630348157552 -0.413373868679505 0.408184822082408 0.155089420518347 -0.895877517239743 0.654566021965199 -2.929950814738427 0.495532914390348 -0.208363049600775 -0.015295244692005 1.502332636847764 -0.539126882655225 1.201468544766164 -0.848292898758634 -0.518037347318795 -0.739154134160828 -1.420254061633957 -0.182021069425052 -0.884087367971114 -0.267608161613023 -1.045115970203596 -0.241463039118001 -0.793314396852127 -1.541609906960858 -0.445487934275202 -0.529595119675814 -0.364346928207873 -1.395862902637262 0.464175211959891 0.778975807947265 0.013598738350401 -0.952374555539138 -0.161339499977754 -0.848337160895534 -1.244874849655381 -1.657030418097802 0.493490398430358 -0.861338189194621 -0.282621530674823 0.595819191667459 2.277011389662664 1.684244764177466 1.922654326475779 -0.366781045690590 -0.952467960754154 -1.585853614252485 0.916566433806916 -0.207760293081205 -2.177941469963292 -0.482630853480864 1.045321686485969 -0.508944251759927 -0.093797890590036 0.227619418631917 -0.233550522880510 0.736284157725961 -0.032063144381409 0.910033834574636 0.014732980708008 0.022828752289225 -0.681874104646294 0.477499915234790 0.246535621383653 -0.502789844545852 0.469194219648919 -0.372444744517006 -0.877479414994048 0.357960751561961 1.110511498860734 0.599322914585396 1.293562793251478 0.033820860672906 -0.905480788812347 0.216264883307243 0.556990720373895 0.928709878342247 -1.079137819866310 1.091105655061032 -0.071710753700483 -1.397559365475260 -0.005293375000084 0.032621429477200 -0.879894886412918 0.467369686339059 0.194174629529805 -0.870554652071591 -0.330009711997603 -0.135469384786815 0.012066768990979 -0.383614141951991 0.878930521812140 0.718239880526106 0.973299209444337 -0.721298291962693 -0.559825854748364 0.246291989265626 -0.117225784330031 0.989169673049918 2.316490218289491 -0.452254319884154 0.000192306761228 -1.498744194490750 -0.473735527999779 1.068253689019081 0.307665852150708 -0.977722029586747 1.240588289191047 -1.366467178541533 -1.323950560768208 0.530671992385731 -0.531868038504688 -2.221407128813083 -1.219269749993484 -0.281335484450788 0.513290915703564 -0.497969570134805 -1.018789399147058 -0.705231467221535 -2.465037177609746 1.041494485897279 -1.721446485451890 -1.156340643960734 0.660317297471817 -0.201942200620137 0.406531351404409 -0.037678400941915 2.098049731985273 2.026480577859971 1.030049419862783 -0.620246271845268 -0.900453106396692 -1.301371590448846 -0.650711600015674 -1.636404055469125 -2.148409119119758 -0.371168136127006 -1.367771436351304 -0.465588466862466 -0.554624867640693 -0.083073194808371 -1.099528874626087 0.907780354784796 0.064254416829701 1.427748921722958 -0.582455066348933 -0.187463074657179 -0.626630628516764 -1.496797064094730 -1.053209770449038 0.686417949744958 0.610741799628639 1.104804039634635 -0.285681973437103 1.255414012424923 1.194557138349264 1.431521745840043 -0.700265194834340 0.860853873220500 -0.620780731376708 -2.572459766954824 1.832217040706402 -0.766285495686938 -0.581720757285427 0.036236191288774 -2.183986887887340 0.282060750121631 -1.927300312549466 0.580474102942499 0.258617221505420 0.367435901257239 0.058533762613129 0.544317282214658 -0.177892102072182 -0.704209573090402 -0.453503716639490 -1.188356634634808 -0.618135246016647 -1.852230584160541 0.528285525872419 1.184141432439994 1.139477866759117 1.059524115478107 2.189489718096597 2.969185291326098 -0.619533527207353 1.354603238230188 1.356093716335521 -0.362020218804316 -0.398253696415535 -2.221932528752177 -0.501804852797118 0.312819393998715 -1.475617433873113 -0.412198864031914 -0.323634029845450 1.453572584100148 1.223143615213909 -0.459151849294139 -0.844664365290091 0.014836332890457 0.275591426934615 -0.123644585477089 0.426112945935173 -1.214685270981663 -0.611118678459774 0.595765540632113 0.204132406246619 -0.691697733986348 1.153829904762906 0.753956513016828 1.233639040753187 0.822032666007710 0.658991554596523 0.708828157284141 0.246240025026420 0.957388864780996 -0.202661107296778 -0.303642496144730 0.362980317062903 -0.307801702339205 -1.245541792903541 1.547400111356806 0.233845021620729 0.652115793814198 -0.434963044560735 1.157454846167053 -0.604750572342558 -0.407553508197808 0.632837495241519 0.095080030808147 0.575551274246092 -0.513927029851903 -1.361513945295916 -0.237902980216981 -0.675618704471251 -0.086142635257190 0.417881431639843 0.750251016689508 0.612145619090847 0.125313364163315 -0.269527065639816 1.228974672025242 -0.153893374152839 -0.267466094894965 -0.459590259096518 -1.867204861695633 1.676271933966306 1.790589699546581 0.445401463536196 -0.696972211890994 0.076401152879560 0.811137707668877 1.639870500386430 -0.737316934492758 0.995785579781710 1.512024832022137 0.717312146896814 1.959453497971338 -1.126743488943198 0.433239063850144 0.663829522043683 -0.256871311959684 -0.870951418760574 0.530341243708581 0.095639187178823 0.721671808221190 1.314491950825171 0.294325265082697 2.194538131018656 0.137834968882927 2.183422928912998 0.413192512468930 0.892050182835156 -0.517317662454019 -1.593569382796065 1.033102027755724 0.266698373477595 0.448840576352896 -1.017156423389450 1.189691755793605 0.417958350248341 -0.101113363868490 -0.195715760196311 -0.633259220904227 0.809601494645550 0.315866912099854 1.632417703977127 0.202582946825635 0.375306613684542 -0.698468410971119 0.889643683109251 -0.015361548313657 1.212698598752608 1.274510556537121 0.960228958427735 3.136079872916418 1.324475906865920 2.037270710268282 1.127103856908830 -0.897530224237472 -0.069623963864800 1.881121728739276 -1.077910814449833 -0.613029796953789 1.003250389015214 -0.678799121036695 0.814520191712712 -0.724999019295512 -0.911334218152112 -1.062806067281439 -1.132605608138260 0.484108487561973 0.039234756928397 0.204456950450575 0.141380900081113 0.350908103926393 1.883989804082075 -1.457635481817533 -0.330366825538192 -1.392169685819069 1.881269429793927 0.224981638549344 0.421470273684966 1.496823557732436 0.687853300323109 0.782934073658023 -1.121153912649890 0.329439275859707 1.171397783559862 0.170594542089319 -0.440888489591686 -0.381153908785023 -0.172812178331411 0.755807414041783 -1.303419573677478 -1.431099619331777 -2.803811502324069 -0.677702847901685
-0.429009089393765 -0.062139167153564 1.569070315879120 0.708220345164898 -0.969729706220544 0.088046737172161 -1.782460762628954 0.348485714581532 -0.235014081394283 -0.105361281074757 0.555234094385024 1.131439334587208 -1.120205015966058 1.659317797583022 -1.085874225464071 -0.348386855890790 0.587384892290708 0.806827082682912 0.426232440138187 -0.288929536370462 -1.324463212739076 -0.109020462526192 0.701848814855610 -1.016224036503866 -0.085452595211289 -0.381222560628526 -0.178033711267489 -0.510104463274353 -0.003192125524653 -0.768532267119804 -0.028382023742228 -0.665380405727257 0.609326389221424 0.981546191632920 -0.359860824499726 0.167340274592104 -1.459569050431453 -0.332702175514295 -0.163285937396666 -0.917380800600648 1.427481097909999 0.327846749886683 0.574337790044438 -0.266081230139703 -0.839407425684835 1.699442570244616 0.088015886305221 0.165862589549654 0.745918571264960 -0.214150216067422 0.425443982558089 -1.106973078447996 -0.827613975383476 0.221588972085612 1.970696753138212 -1.147968620289344 0.184144791370005 1.757981203936364 0.970511433264616 -1.876715030339056 -1.344992873353120 -0.243905305760441 -1.017338302455516 -0.473933956091638 -0.666626671504906 -0.590381848246953 -0.116940169428278 -0.645722702280781 -1.477059992349946 -0.278219484459983 0.914955714094961 -1.652427827803044 -1.132008044702638 -1.161403283421383 0.135742800676255 0.989911030800600 1.098488066604165 -0.417326719442284 0.127147506105590 0.793739637801435 -0.717884001571420 -0.058592111874851 0.154635135151085 -0.744684390259120 1.295949364346905 -0.781067333765510 0.669089905809730 0.042255477764816 -0.714981163917902 1.437468867706982 0.831134738056987 -1.789238100329271 1.964558550618038 2.737266049657667 1.237020396210182 1.138754474734835 0.061619482704601 -0.537793015451685 -0.278672883661748 0.969799801076410 0.498203054734120 0.078992675654805 0.075099878490413 0.266720419713859 1.821423258849205 -0.153671511129434 1.997229459329771 -0.543622376013144 0.677210551073798 -1.030419897075758 0.842073667928563 0.253336372948297 0.958710230047509 1.710836733821603 0.065822527920782 0.791014443840427 1.106122717402267 0.462643376990221 -1.284661115288452 1.278351994603445 -1.743545926391709 -2.032998913392559 1.117048033672008 -1.286836604443258 -0.116583153066735 1.698968479606303 1.173224879314851 -2.277019992635070 -0.057860470484881 0.791235716303657 0.339242132054156 -0.124959926181752 0.972390514318607 -1.016476030981321 -0.614737109407423 0.889363017260667 -1.056843449105101 1.111309036843896 -1.225135335665858 0.901095410130168 -0.870880878982304 1.042868476723597 -0.375501555046246 0.293367855499789 -1.971108817804467 0.615670895188258 -0.172612391615585 -0.735690441494021 0.967278170733720 0.597449772218287 0.248421625967805 -0.708956588065783 -0.613030068090218 -2.231486606852456 -1.439257874530037 -0.385132587420445 -2.161329082397763 -1.884182699051696 -1.167346938942369 -1.657757840698398 -0.914545839153850 -0.833013827256847 0.413998037896196 1.722236662106913 -0.441452170200348 -1.462935969603159 0.103927911405178 0.705258799248452 0.804102966674671 0.586980444699335 -1.864120840209001 -0.146465626521181 0.677856349965229 -1.076639954528320 -1.094795837086078 -0.074626727878498 0.232256603344024 -0.329308949749781 0.480129298774701 -0.554665826703791 -0.920175846134322 -1.463020863184693 -0.799671017150817 -0.907492363317192 -1.077542704593261 -1.347169357042930 -0.862730498524073 -1.689305810821391 -1.978106533285769 -0.981667116525498 -1.050626775928909 -1.608453186262504 -0.390391899401870 -1.212161690786345 -1.011670609572597 -0.157360589608357 0.922846930235484 0.056833524489376 -0.417782015070726 -0.695675421549287 1.995899540501595 1.036625210118104 1.091428281138792 -1.133159112692273 -0.552895215633261 0.114532551040363 0.025123192022397 -0.883097730418602 0.337425533896323 -2.141177725053645 -0.205361718064678 -0.044555801280293 0.454733751838091 0.367233634105329 1.546337888135002 -2.141543467992381 -0.586171918881382 0.768486171473003 -0.356731256867624 -1.639017956643367 0.015767634077855 -0.796171220896571 1.134895870420731 1.723556947485785 1.240715240383442 2.492915965870509 -1.038671917454570 2.789432241778320 -0.391706716975605 -1.029580674496654 -0.455188978750913 0.076799237283033 -1.075423659254138 0.163632612521127 -0.498906516112999 1.336134035637400 -1.272712094068046 0.711131294245822 0.877957581660026 -0.025677526928395 0.483408732256417 -1.357470153200197 -1.919386089098809 -0.461986482142436 0.057966237423814 -0.599523347442453 -1.473736730120483 -0.250675790001908 -1.754759765115798 -0.629764176325518 0.165877033175467 -0.447535174229522 0.584077069913666 -1.024376876240906 0.153089054330526 0.755755243827760 0.824534448373946 0.870160644654763 1.650491334101763 -1.238067196889831 -0.802078469481450 -1.405937077130245 1.382863566248424 0.897509392525719 -0.429857288143866 0.515126711289072 -0.207857233774146 0.101238330203735 -0.144754886221353 -1.188089775932062 0.103216226890217 -0.219915215490809 0.278039585770795 0.060074875863864 -0.813715966749242 -2.294176223551252 -1.879504421797944 0.015299654957205 -0.130717333871275 -0.557229922440531 0.472823833141918 -0.414744558297830 0.530545853542433 -0.582615054046423 0.338988169720333 -0.262729450250061 -0.699436737957377 -1.087255474338942 -0.286772303655171 0.285997505151225 0.459110586345500 -1.122374301003390 0.062382957934200 1.245252318962530 1.113499341610302 1.155388572725301 0.046857125780946 0.748687372584199 1.352619136865163 0.212677041856451 -1.010333675689052 1.335795987984429 0.287494202300222 -0.118551636765167 -1.037933081886043 -0.025719864168273 -0.819735349171115 -1.535028406515999 0.591994900852084 -1.433827933005412 -1.062832460719291 0.386808113201077 0.298286517235545 -0.292526165371477 -1.012005919621425 2.570452005000578 0.940493402202388 -1.578090964192543 -0.727058460119743 0.818924928936430 0.538676310456038 -1.207984131727800 0.510794133523686 3.342458549183229 2.336873663009409 0.252415923253046 -0.926740542187402 -1.949286939981872 2.670151214883333 0.207293720176227 -2.234264474146262 1.262448763033791 0.287077584341270 -1.673567772965015 -1.175654212234815 0.913413214121092 -0.505553055793414 -0.171616043747462 -0.384626653341018 -0.443196125937381 -0.613838758866320 -0.250207597287616 0.629799661247516 0.678970119263254 -0.091583934198097 0.602368204080352 -0.638392064090367 -1.809785600131095 -1.687814846238387 0.537068461315216 -1.120414147965533 -0.478686785799287 0.422285204678774 -0.120444075024269 -0.233028033889297 0.695452304327367 -1.316501630249977 -0.270455175286271 1.922497615264366 -0.387146675393323 0.737146348450578 0.723888660303517 0.542930780351856 0.673699858517351 1.346358327868246 0.905576893255679 -0.106917037942427 0.457978569663615 0.862391302093101 1.021849840684201 0.053867557901340 0.123010955248139 1.361503803322469 -1.895278460850401 0.404608173060270 0.849239669856173 -0.189353105964038 1.054218743748576 1.212829729532223 -0.315549733646539 1.186748585473814 2.156589503609642 0.745193786871883 1.981749488272454 -1.399903536032255 1.518081224554883 0.782006792945330 -1.812267083691357 -0.126119542731418 1.264632142891575 -0.231247382012955 0.961084048389564 -1.089574983723808 0.449182069022877 0.693710137335551 0.882003200915818 0.049142886717393 0.390188787811907 0.790399606525458 -0.340381896536324 1.794717877258158 0.858163322450845 -0.164179230083466 -0.191664584429092 0.255025269792830 -0.801857227923197 -0.368454058302319 1.669088555712725 2.075400561750633 3.301725772940316 0.660190577363004 0.579890022752769 0.832066159997123 1.241755455640750 3.485244228988867 -0.187581094795755 -0.299119070814418 0.890571312927921 0.341909130657242 -0.445833839828776 0.864612647479350 0.111050933845903 1.170162655061455 0.993264167909703 0.326942876144877 -0.047787701562012 0.720341361934274 0.620223234317273 1.294133626754840 0.432246004228542 0.306465264751384 -1.108054316315806 -0.329852078729473 0.008380842907600 0.093148870920364 -0.121753285958656 2.120207290380295 0.446624920212182 0.619637120787625 1.051174812814099 2.669696180327332 1.251986284425951 0.619783289715906 1.290519391426897 1.261304580294586 0.162038775082411 2.348964058963759 -2.221216889829185 -1.152179683477322 0.281858576072352 -0.443490076466801 3.017695304180267 -0.976578518891318 1.494804549772193 0.091434979601848 1.768072685632193 0.091159224650470 0.772011486247297 1.638091533140869 0.175535254511300 -2.269745617344419 -0.060925736367275 0.842253167663186 0.972314514427310 1.512801227408640 0.097738714159891 2.381171866258033 -0.739153115255542 1.920720488756561 0.225881421366176 0.489773948305640 -0.943390142976196 0.034388819698447 1.388642689078374 -0.364854602168938 1.096866334955173 0.259603113888794 1.242281366470180 -0.031889225411005 -0.996501525753739 -0.101368428105992 0.750923567603256 1.286274426460439 0.429848709921376 0.002915952712807 0.996137817559535 -0.098026309327724 0.663381258509340 0.904956204165683 0.862379616335325 0.826350531303457 2.569025823434714 -0.427147144705464 0.159415664755016 0.792889271103868 -1.766180047543198 1.197780040436551 -0.665514575218421 1.343830119683257 -0.903949959758376 -0.710913020202291 -0.222244588671871 1.043728197058751 0.944383583259015 0.205487110533584 -0.264681846324116 0.292246614097595 0.031428737870815 -0.889070334655453 0.396083744208700 0.716418417289022 0.996434767500674 -1.223943298131644 -1.890244702101192 -0.680786648804867 0.538991649105025 0.337730636516003 0.748198516293352 0.958494024105578 1.778055968617099 0.805655300798967 0.814946430888730 1.111053266335204 0.194164359510543 1.514686449986479 -0.167379408764404 -2.691491816370152 -0.322987981923606 0.834384721683232 0.280170116140129 -0.227891403231548 -1.439056354873437 -0.040613293085166 -0.312960985818433 -0.585199484432228 0.715232820088687 -0.117692692668526 -1.486026386756132 -0.700443112478023 -0.049107916492084 -0.786043186095073 -0.977310495468969 -0.260316050091226 0.079102704762268 1.202454311189770 1.123645799837236 0.385930293747662 -1.020004069147193 0.922540507829134 0.647239575916783 1.142983749389440 0.690124815105032 0.103361967065676 0.436665358082322 -0.209440223269748 -1.709679804079792 1.351951972254661 0.699729482571098 0.831269474223663 -2.124911788759967 -2.273053140770669 -1.690487107412485 1.413359747337103 -1.416188836629055 0.509559989964029 -1.777648021210647 -2.592928107931019 0.262721255713739 -0.775826809959459 -1.120076747234402 1.240825562509092 -0.722543537399560 -0.966845512825765 -0.191357181956396 1.001894814625298 1.395457844214500 -0.520876864615385 -0.404354397185332 0.398159024008150 -1.301819236563746 -1.260022297389938 0.668863665631934 -1.073720921760572 -1.122940289841268 1.863778091289559 1.532771083366067 -0.278705697622295 -1.899103882456912 0.051359162270120 -0.792127920448607 0.201919373400487 -1.377618275566235 -0.296938846814251 -0.634210828792880 -0.882547168425951 -2.368068920177090 -1.531212658959752 -1.156130357876643 -1.107779995852341 -1.927950792299747 1.523963627912240 0.211269980224229 -0.915805095214128 -1.830343973947214 -0.840311446499962 -1.099789741206191 -2.519318511715918 0.222228089344798 -0.968269402695092 -3.156402103092559 -1.501513061954038 0.481419507244068 0.377688588196529 -1.383233596703208 -0.862286879956345 0.448802128840868 -1.210711536120400 -1.276085046544133 -0.819322614778781 -1.265695170716927 -0.575066224135002 -1.891046755519152 -1.878868295022449 -1.821269535789659 -1.497562851224193 -1.045266513851711 -0.953281479022926 -1.289968810909881 -2.878496240842467 -1.409523419651316 -3.079640572938929 -0.760713342466881 -1.225988775942056 -3.015837812808689 -1.483938906925776 -2.560400501403796 -1.721420347847613 0.677771315187960 -0.422079595512283 -0.227303977382786 1.058301972974756 -1.209383344497586 0.784182734890883 -1.098463787381274 1.886176340844367 0.476984473431495 -0.741179801329257 -2.237098712314232 -0.682954004715040 -0.550308533730781 -0.672884007000466 -1.032366453096802 -0.851129425764110 -2.136379714867947 -2.335625935186095 -1.089509043932488 -2.138087617592106 -1.758558357214621 0.264153162384114 -3.219317627166882 -2.432048645574413 -1.467802357627075 -1.463505901565764 -1.095493750506354 -0.564558023111426 0.311462832067458 -0.660344130532735 -1.752709404848729 0.480937622005741 -1.870682807793399 0.585249785336009 0.658242298461811 -0.833242676662677 1.999591261883253 1.219228764693104 0.102935043369708 1.381323801678366 -0.705299952959424 0.651819886377690 -0.777962743930057 -1.251764913528854 0.521115723805416 1.095698507531703 -1.338654256250348 -0.810483001337391 -1.354454413437069 -1.306144195049033 -1.905538506607640 0.196330490338626 -0.764775473962907 0.455147454271159 0.541871330776191 -0.824175457352257 -0.029897887679218 1.778072934198528 -1.667040711407175 1.265189026287820 -1.695127524128893 1.271275566084947 2.262371521404007 0.841366839427597 2.002542285753467 0.078437503991150 0.137482636127305 0.590492112452886 0.322705642897256 0.578433090225308 -1.466709186935517 -0.351971891591209 0.051122876503282 0.267236792403513 -0.411116504668465 0.355074237321337 -1.342621421203119 0.215663509370653 -0.211270308321380 0.485380369558410 0.175736213182350 0.766879574443784 0.145816945118669 0.977199349709224 -0.892155309143267 0.580516321620788 0.182615708554101 -0.627085939676829 -0.384718539685439 -0.509842534049250 -0.566903231082444 0.387784239001177 -0.360497232020172 -0.384080049972536 -0.835468045859536 1.337879886718878 1.637653174047826 0.554368342641134 0.236261149044493 0.581903697148581 1.319865291973396 -1.788347802346345 -0.680831116646993 -1.667083696023149 0.604064272706769 0.213596296409397 2.402877470457670 -0.447933368146399 1.128443217990834 -1.421051519759629 0.427740629386818 0.678139136550663 1.040278013536855 -0.470817230693920 0.758544607300727 0.926440761346823 -1.460031069376956 0.757646621022536 0.236295018730060 -0.572968419521500 -0.459266378401879 1.007640349691077 -0.819012036993605 -1.022387207497186 0.887484184801950 0.819225198882649 -0.616530809235696 1.042993664354263 -0.739738941416557 1.521861348465996 -0.653914439626135 -1.415067298885897 -0.756989716112881 0.346130847394698 1.126617947490804 0.399325376355760 0.472272902945301 -0.351481207967480 -0.360649414702558 -0.908356254554189 -0.358898502635218 0.872784096096531 1.103909955103584 1.185453924855705 -3.988245197514635 0.636849914141541 1.295448414790265
0.016899414114782 0.260101656306643 -0.936554295372128 -0.320222702393072 -0.067078199137623 0.726384145430403 -0.162700710127480 -0.896855576854446 2.033673844327140 1.364205728415460 1.235364381663056 0.887700556444422 0.654060583483050 -1.358658174695569 1.466266063415111 -2.302276268058578 2.282912442997572 -0.135644348198230 -1.321350779211034 -0.847120496963181 0.423775403651923 -0.809854791435350 1.076930522344746 0.437359786023855 -1.646649138647599 0.203386877411450 -0.171236238900069 -1.422951757768240 -2.259328421204474 0.839260995203731 -1.115061701495116 0.069901501963866 1.499040191540081 0.599422780184394 -0.905912653748517 0.016736251934237 -1.328229944832107 0.088476224472964 -1.449484152386234 0.099794629040390 2.417179604745451 -0.161195716440521 0.421688755404527 -0.644530925373678 -0.761646161903249 -0.624126080049748 -0.106021111838592 0.020413894447386 -2.798112898435499 -0.161600110771880 1.169277665279036 0.315573705709183 1.529487248195359 0.376165584090656 0.534284142074886 -0.746462818024008 0.820910902786559 -0.690310650042674 0.466322210855969 0.559810846452656 1.411577711215154 -0.168368185589109 -0.530603046001078 -1.041823895181131 -0.514255723327658 1.155635152141428 0.083195820234585 1.507085680232931 0.754098114263035 -0.395206133991085 -0.332031750143645 -0.888037196291210 0.895141266706740 -1.689666886493952 -1.313226019120343 -0.765421395830245 -0.071941311087414 -0.920801633642441 0.985814116081805 -1.133819738564807 -1.736802038899948 0.853104259871173 -0.962518972773462 -0.561096343715880 -0.939003184839884 -0.362305710188300 0.574241449044252 -1.166987402691156 0.906613636560565 0.500519768056583 0.366538305782137 2.504906878101156 0.286682345511793 2.614116623532575 -0.248921584067142 0.627260175368884 -0.499877000817287 -0.102332245603246 -0.077558571018020 1.230593898525007 -0.795599477207791 -1.302163164124302 -1.005684386594938 -0.219548802252822 -1.088097304602560 0.236395168426717 -1.721466504588237 0.771716442805348 0.054564295163124 -0.190878770065409 -0.082340320500398 -0.380665158758863 1.084924754545426 0.382939048845463 -1.081130649206869 -0.118952334848019 0.768925793782139 1.166901609595516 0.836575837307928 -0.141907977155879 0.195994727039248 0.424714965144007 1.368078926912183 0.459736266188971 1.787901556916333 -0.182816254882358 1.864690012151641 -0.102788785143969 -0.806463759391467 1.056410382725444 0.511461571942260 -0.657655962047883 0.286890221494824 -1.582809135439925 -1.121571924556992 -1.279043457915628 0.238918077096347 -0.812010526433514 1.148507254107823 0.000946498335157 -1.017790293301003 -2.150384108973662 1.171897490627520 -0.187971695319406 0.720348858757996 0.128686726794519 1.952381094358310 1.961586074564752 -1.954323419421659 -0.170002792963801 -1.065402054527367 -0.386715128865736 1.149469708239263 -0.594806153751816 -0.976640772495147 0.950808746317726 1.005960417764027 0.295531466231444 1.202097137686796 -1.429819635140698 -0.011563901429352 -0.474401659452032 0.874581811077220 -1.522645006069318 -1.425011932736362 0.283514817622928 -0.671950658453862 0.116610915161461 -0.659569543899988 -1.298674484455402 -0.740423828552431 -0.807700152837958 0.392977395560600 -1.090383306453897 1.156617516533608 0.211644511452185 0.253483509173290 2.473371106720099 -0.380141928582733 0.844652234468346 0.402389649902734 0.827536863981691 -0.008931496762004 0.819783312508953 1.371471281699791 -0.066115992438056 0.227240208461071 1.773472120912250 -0.385137790362763 -1.761204977452767 -0.146131891654077 -0.228307644118454 -1.308426350634072 -2.110436490918452 -1.490648031084279 -1.385169368632717 0.121005067328773 0.053786218903917 -0.984902354601820 1.081874373801134 1.348565099308427 -1.773865610305813 0.632415589923322 -1.251235560210891 -0.714684283513501 -0.250595998248036 1.329692036497027 -0.205943567573630 0.680134201207574 -0.266219149298599 1.564437654361513 -0.768795482333936 -0.232464245032866 0.862923735681165 0.103169766841064 0.635815454561359 -0.209453002334084 -0.285679307065415 -0.133191863712218 0.434511256109228 -2.215074159707206 -0.715624679392387 -0.739068330765336 -0.008403112662726 0.998915879963165 0.151703201658113 0.030360617201792 -0.109455254885940 1.451004746801612 2.245605016292787 0.955356861284449 0.707186722074983 0.634891370886265 -0.612127909872800 1.240073466647461 1.953133989158446 1.401974657098883 -1.224121306650327 0.554642661014109 -0.627499959610468 0.399956439423561 -0.873123037606685 -0.165620980106373 -1.043494751293772 -0.075609215874982 1.006575855342780 1.760192913982332 -0.437450200533313 -1.869918675115312 0.631682212461566 -1.549732993952700 0.255392414860847 0.603810000820211 -1.394060683814417 -0.011637662493790 0.493068612371908 1.494029406184486 0.678204966892474 0.362676963996265 0.924973477429916 1.021838292992710 1.268105136856082 0.556492069613524 0.224763196999361 1.535028046801760 3.200487542849297 2.472900129044590 1.049434070423617 -0.090437082693191 2.006040840000584 0.526376195108827 -0.152274663675200 0.118215416879007 0.208236332843195 -0.378977484824693 -0.729402901125556 -1.209850288963534 2.138416279574058 0.803283039596988 0.218290181780027 -2.693793465848558 -1.193108339729061 0.002421387863716 0.315550370582784 -0.610425333465445 -0.414710498266033 -0.096093464987330 1.176169685867795 0.091995690783290 0.350503945020457 -1.474452730967421 0.268893512698622 -2.167016490150812 -0.757399682247726 0.902148217834562 -0.511114463770474 -0.363123050009353 3.134382052989631 0.291542434711185 -0.602405650282297 -0.180704676568566 -1.792738865279679 -0.712681171264574 -1.831500488731782 0.254190706803644 0.419945072873787 -0.081028670005492 0.778931442256332 2.242544085019567 0.731152267167361 -0.804743675625352 0.339029156096440 -1.589338762421218 -1.361333024911061 -2.348651565153216 -2.513672083305726 -1.964199928968995 -1.826907511409031 -4.167105468670229 -3.869361880377587 -4.999420874407728 -4.820518093167004 -0.513743046094625 -0.736551471711963 0.088234243651781 -2.492944759139082 -0.058768378072166 -0.027690463896913 -0.285366039723801 -0.877663282105426 -1.561503738448682 -3.533750985432754 0.732083634927916 -1.268275859241728 -1.067019594157792 1.373129635307849 0.866619674962034 -0.068845676074966 0.277443068838283 -1.166249713061445 -4.125719209510551 -4.343529057735661 -4.390627722418123 -5.757258793010246 -5.669186688106349 -6.085213957961117 -5.075399217223903 -4.321824721415761 -5.676821513591183 -0.982756895839573 -0.476586292140156 0.731001583202703 -1.360805051520839 -0.246240324498378 0.166739762550088 -2.191451731310612 0.414440232039060 -0.309631628122046 -1.725522485449223 -2.496617904022885 0.073205190665956 1.742537011028358 0.284580795736455 0.943043154150372 -1.661596334060962 -0.109180746447432 -1.202433372419640 -2.147021848118900 -2.647985341154279 -3.117312445019294 -2.868088057384866 -5.340558394393142 -1.997903786589061 -2.549548502986079 -0.076711065744808 -0.350241335242254 -1.647488785736907 1.802303976045903 1.611239275783332 0.293373071776496 1.350087725728541 -2.229841477938677 -0.492837555909149 -0.910927602946823 0.829165757278660 -2.133494880233845 -1.618989321459363 -2.431635894540753 0.490144738026472 0.492265274402033 0.817629039380096 -0.537313624786347 0.557671356050484 -0.224645392954892 -1.593610266249190 -0.830854761727651 0.485373358028261 -1.570853082318616 -1.996928837738263 0.002755813275733 -0.302834316099496 -0.198513970188835 -0.412848672915868 0.184972743135831 -0.430467422477217 2.108757293434699 0.138349608407098 -0.191271700552664 0.559556523717072 -0.078395949913665 1.049014960810118 -0.069948470594224 -0.624675796247215 0.339140410884768 -0.318504199664920 -1.489084619884876 -0.415750673086120 1.492861964963972 0.301243259841017 1.329491859248327 -1.444308356811648 0.367706552977335 0.622847109489340 -1.220199687365521 -3.078043559827560 -0.852345949773955 -0.116515828644915 -0.326793937178975 -0.407969417321160 -0.793621728365743 0.227139083211502 -1.272836452934997 -0.795945193028322 0.775853483652527 1.253692781365485 0.998503949532063 -0.183431636685409 0.849660229040219 -0.946557708205108 0.739743446669739 -1.075336089702118 0.019304455165469 0.032260059850417 -0.902870479066791 -0.320838578728829 1.519763760498053 1.539933142365058 0.651688643323189 0.687549160797132 0.199983145466123 0.706097662398445 -1.203039126194514 0.622050734789941 -1.907804536111116 2.836365017577582 1.017744762900329 -0.909449815046343 -0.288860077067024 -1.524304394907498 -1.191866471789863 1.468880921944138 1.481444566419244 -0.302993666343621 0.264713463736336 0.308696035640931 1.019413972673263 0.354159853801516 0.700621306266356 1.005466478109640 0.978862653565109 0.460807008652676 0.619006519582694 1.094668994478571 1.938518772984000 -0.492539761664864 -1.353866024919748 0.167311006752070 -0.144883560684982 0.043565745696659 2.663827105065117 -0.050334450324235 -0.799221047997647 -0.202496472050352 -0.787097682989201 -0.202289038320697 0.782984813092696 -2.159664150986805 0.718162570908593 2.109018999835995 -0.849595887892121 0.420405961864814 0.775680543064345 -0.422395543423159 -0.048521393130014 0.905535553470197 -1.067814191561906 -2.346899860221348 -0.375451873472849 -3.393323342461999 2.061896964679097 1.082875451328318 1.723634800006398 -0.208305604730092 -1.407218391485056 -0.412842684097380 0.106096845664821 -0.935646479486859 -0.107107346655792 1.830868004133450 2.878897505662043 2.684504880175083 0.113950195987492 1.008906833204829 -0.505498231812091 -0.547184956429363 0.839540317982892 -0.504627618792998 1.074655496213141 1.876652273675961 0.265089407712001 0.260513626131533 0.400871310850966 0.629126801222498 1.548411325898286 0.360957115043096 -1.165899740308042 0.158041540020168 -0.173112671312191 1.453364756970863 0.759999839834028 -0.289303620122600 0.457697768708412 -1.635777200031912 0.870256638748744 0.862506916589769 -0.401859468413226 2.819592384375655 -1.030915010906752 0.922863186971051 0.354525877654488 -0.385294887027164 -0.333962323680655 0.656507022849041 0.058124184586110 0.205484389553133 0.324011497399704 0.792718410143850 1.005467151558825 1.553341562218772 0.442712325134032 -0.475374549499163 -1.131039974726393 0.104018637752849 1.368313648889187 1.147174159794029 1.469894130435310 1.075559208492250 2.006092290657390 -1.617760379652120 1.261734140284742 0.077917264236245 -0.994304795901330 -0.486913119922871 0.537640335861817 0.169556809267659 1.092804120760833 1.547968206231590 1.198841323993367 1.613624970510428 0.811760637998510 -0.300210565187584 0.602970947224584 -1.406348214611125 0.154199141265744 0.010490046060452 0.362045717468019 1.278607187706208 0.319667409543791 0.379420923919679 0.939803205948814 -1.263658035508796 0.430464978430229 -0.803800768467018 2.120959585415549 -0.059659245093449 -0.164012786136968 -2.026449521832911 0.655493284288086 2.163572755835561 -0.038300825962685 -0.340766959409485 1.887228563839110 2.254355100264158 -1.538935004644453 1.575052315838153 0.146827772334053 1.263656958548028 0.754997619293245 0.432727361815630 2.032996084723007 0.810441651530457 -0.161564034718583 -0.116887094709041 -1.354714626591748 0.418185543826793 0.583436810870385 1.522422975459333 0.181644803715614 0.254482655976720 1.519178337126748 0.849943277023274 0.574953580235476 -0.189396542338144 -0.322781426753964 -0.080369741338499 0.467781247181585 -1.230145785018250 0.403575337711527 0.328087084965987 2.100108828282520 -0.832297062550538 1.675247699604266 0.504276789598203 1.203731379271392 1.218881697345739 0.251188503750025 1.102262034762266 -0.246060878522511 -1.218013900985956 -1.162995783638705 0.715755204383289 -1.378110147652805 -0.676505488054030 -0.419502044161235 0.366353036942207 0.477167584922853 1.407907369683838 0.569649414292684 0.461066045099691 1.568677135214121 0.034798930572207 1.120568865515653 -0.326123235219051 -0.153839548794737 0.139594176480029 0.823193581360653 -2.148096309382449 0.997114778786583 1.160035178556699 1.272660417939046 -0.393284773386050 0.246839947751927 -1.273116228177021 -0.021654702106363 -0.177233394562627 -1.309476012187028 -0.925273626038369 -0.059279407075591 -0.463772409510705 0.290632909003395 0.030821067539788 -0.606136206733113 0.677013263389968 -0.055881708400241 -1.503468657787313 -0.063035817759179 -0.619374078203832 -0.037308832888606 -0.390214900589102 -2.693325210191388 0.146173160419139 -0.316233641324623 -0.392024035065027 0.405301704538745 1.161344029058300 -0.727393954366828 0.641823394761589 -0.368572430740762 -0.442148850512175 0.100559881659899 0.663193510033796 -0.212189208516943 0.123629493447071 -0.046086817341694 -0.214333508342872 -0.500540184310686 0.607400480126439 0.313045013994643 -1.130529332032464 -0.719643726775647 -1.726450537452010 -0.325239232857528 0.181101542621691 -0.061566751461549 0.386144254602259 -1.030899166173063 -0.289780027415749 -0.687059666611097 0.008947269604715 0.375811098942614 0.859389996144346 -0.552755705000383 0.288351639273770 1.868412219576237 1.301564064054217 -2.442981728241427 0.796917520909039 -0.140904706436280 0.393736573204079 0.258873537868374 0.353702959888092 0.740872242696219 0.730563058595596 1.394538608508630 1.052577428577578 0.977759711292616 0.985654798385115 -1.064280347747976 -0.438502314551614 -1.168425202310880 0.410266044904443 -0.554044332516879 -2.095317116568873 0.348423171143595 -0.657118919439577 0.879099048611136 0.015086007210976 1.708286743775442 -0.347470660650857 -1.238850884197675 0.897714549925257 -1.362057555646474 -0.821912492806426 -0.320191685938345 0.141146440571158 -0.539910266449050 0.151800034342279 2.157787897894780 -1.346659553786298 -0.056692861795107 -0.364986402054991 0.116567659757178 -1.386390629544932 0.554723635456240 -0.052776369661271 -0.158367734191304 0.491768840936454 0.083309912921909 -0.552387450927625 -0.924708386101628 -1.467303740281277 -0.689530455407807 -0.698635066272809 0.627297003446489 1.009533325494773 -1.250132486500326 -0.917548229027476 -0.993869776700284 1.325807833474959 -0.931705532538313 -0.945555743277626 1.354073906638738 1.337726305020133 0.011133800366817 1.587575456309887 -0.754003333473407 -0.306228186241152 0.703820215243551 -0.882049746966715 -0.149934662131872 -1.937281970290583 0.020680569665103 -0.093376605136661 -0.248524507741373 0.070060642521847 -0.228474387978544 1.176406342878563 0.377068180219181 -0.359163325114919 0.444676726763695 1.746268582736401 0.468586635302489 0.867900804902786 -1.130698609558654
